{
  "layers": [
    [
      {
        "weights": [
          -0.6261433519325841,
          0.672298259669213,
          0.3437526891343954,
          -0.10361022925790624,
          -0.5954795694448901,
          -1.149960892503571,
          0.7191641736663721,
          0.4794900816591813
        ],
        "bias": -0.09548242327486187
      },
      {
        "weights": [
          0.11884941653198722,
          -0.8679870305776751,
          1.152310793351933,
          -0.5673269074494198,
          0.1254496714420898,
          0.9699421764571591,
          -0.15796526658577426,
          -0.4241383168763272
        ],
        "bias": 1.259288803589619
      },
      {
        "weights": [
          0.6287701659823931,
          0.7340247081057516,
          -0.658609459746317,
          0.5749724100312995,
          -0.613254694377362,
          0.7039168686177676,
          -0.0671399774900262,
          0.0791053281046349
        ],
        "bias": -0.6976051069830517
      },
      {
        "weights": [
          0.6713836575673959,
          0.4002601512046762,
          -0.5902151731515863,
          0.9530855609922723,
          -0.5129786521117063,
          1.1674309402814123,
          -0.5106570474597701,
          0.031580850442880996
        ],
        "bias": -0.5791069748229711
      },
      {
        "weights": [
          -0.2585302224744285,
          -0.25948813204267884,
          -1.3891672433262392,
          0.8514442371257697,
          -0.36757593019114965,
          -0.6725917283680729,
          0.0061421068927955125,
          0.19821681882758568
        ],
        "bias": -0.30733040655882604
      },
      {
        "weights": [
          0.40456562030302085,
          0.5915711178225449,
          -0.38255550207054745,
          -0.4275039580261726,
          1.15835575644661,
          -0.569033392125912,
          0.5451537358081622,
          -0.8451979957455256
        ],
        "bias": 0.9747121849255558
      },
      {
        "weights": [
          0.7752685145150093,
          0.9364023534568111,
          -0.38461526853160183,
          -0.22951570473116115,
          -0.2780903049631066,
          -0.5605623911138312,
          -0.4072070789832065,
          -0.7298587027644378
        ],
        "bias": 0.5755028319714169
      },
      {
        "weights": [
          -0.9156537014081413,
          -0.12231396947510725,
          0.6034549320763222,
          -0.04109733522212043,
          1.215582672362316,
          -1.0929650000140987,
          -0.7353483852849689,
          -0.25323655411400414
        ],
        "bias": -0.22022591903609837
      },
      {
        "weights": [
          0.4274467464115572,
          0.26132225699894485,
          -1.3058999404133047,
          -0.1791195056432733,
          -0.5994220726887808,
          -0.19421163763027358,
          0.05225763151327434,
          -1.043719780525095
        ],
        "bias": 1.2048513480191518
      },
      {
        "weights": [
          -0.7287244103589587,
          0.9097951002119825,
          -0.7172670533126838,
          1.1468959779737848,
          0.5481332360302585,
          0.3894138969345212,
          -0.09228294193217051,
          -1.056380704677033
        ],
        "bias": 0.6296310479331256
      },
      {
        "weights": [
          0.027827156003286835,
          0.7878880553502897,
          -1.0834364578244398,
          -0.06709980591167089,
          -0.6804663078514958,
          0.925131255725972,
          -0.37523320830791834,
          0.34665207525034714
        ],
        "bias": -0.09672921820984981
      },
      {
        "weights": [
          0.4298086972946047,
          -0.41724544748065545,
          -0.1342761779574309,
          -0.6284649697574616,
          -0.6329816873072981,
          0.2509869656599423,
          -0.6961769464012384,
          0.4440375848631278
        ],
        "bias": 0.47764089078573274
      },
      {
        "weights": [
          0.08034304543504671,
          0.2969573892926769,
          -0.6063307035995973,
          -0.9923685411053527,
          0.7887381598678476,
          -1.3930019105527645,
          -0.5507440850251397,
          0.38461576355059274
        ],
        "bias": 1.1348813011261962
      },
      {
        "weights": [
          1.1021544218684722,
          0.6062330889463221,
          0.5728457945644423,
          0.6624732636188283,
          -0.2308322954946263,
          -0.5693353768987843,
          0.5562678907155876,
          0.04221945902784458
        ],
        "bias": -0.2454236931249603
      },
      {
        "weights": [
          0.9467686028478746,
          0.2875798996213672,
          -0.8036138476048637,
          0.012890169949506133,
          0.6269625721785937,
          -0.3221445289548755,
          -0.26799065094017405,
          0.19938685556428737
        ],
        "bias": 0.24057848590288972
      },
      {
        "weights": [
          0.11732408958050868,
          0.12960113278468363,
          1.0306795499830255,
          -0.010477931501217258,
          0.1680606899326571,
          -0.0394289153962837,
          -0.11206651262376363,
          0.4688069651535786
        ],
        "bias": 0.3298453167537503
      }
    ],
    [
      {
        "weights": [
          0.29277569782346724,
          -0.23438238671036488,
          0.2695934444747816,
          0.1993293228666883,
          -0.49468775390522624,
          0.5590899971241227,
          0.2510958150808167,
          -0.6988197056268561,
          -1.106704034047732,
          -0.7077391353616138,
          1.2727948970994893,
          -0.5349526049869996,
          -0.20460087323067266,
          0.06942533354249077,
          0.5245349741582175,
          0.5420589139493115
        ],
        "bias": 0.3164537538509765
      },
      {
        "weights": [
          0.2243957423065952,
          0.48978523451864764,
          0.0309351077701282,
          1.0249479165678321,
          -0.691981199265725,
          1.0156427869923532,
          0.41990877681433286,
          0.701018963607617,
          -0.5797685652624458,
          0.7942240687732165,
          0.51534189280668,
          0.697316311997141,
          -0.3433914571082159,
          -1.0380621381348396,
          -0.6398849274230825,
          -0.4815422390771964
        ],
        "bias": 0.1372230581815322
      },
      {
        "weights": [
          -0.9719352040120227,
          0.2223882829340002,
          -0.2980391067564164,
          0.5497681492749497,
          -1.0003141631912025,
          0.37504094799756316,
          0.8629483584425747,
          -0.08743648697028178,
          -1.0648364110087676,
          -0.7146037997058228,
          0.35132555980462904,
          -0.7773176081457653,
          -0.41804034352227226,
          0.2592120952328717,
          -0.45083871709074724,
          -0.7780205618251266
        ],
        "bias": 0.15676143513110397
      },
      {
        "weights": [
          -0.8303632453341113,
          0.6886445368780018,
          0.1675082201064787,
          0.7997864624120533,
          0.026763760759931518,
          -0.5848649748867831,
          0.3953354692307276,
          0.8643020807151305,
          -0.6213669855396793,
          0.25158664767222017,
          0.06331840360934726,
          -0.9249177887855685,
          -0.14272642383764683,
          0.8107486338359869,
          -0.22489190012295757,
          0.8000325604651262
        ],
        "bias": 1.033726574081114
      }
    ]
  ],
  "structure": [
    8,
    16,
    4
  ],
  "fitness": 36
}